{"learner":{"attributes":{"best_iteration":"32","best_score":"0.5398970702636755","scikit_learn":"{\"_estimator_type\": \"classifier\"}"},"feature_names":[],"feature_types":[],"gradient_booster":{"model":{"cats":{"enc":[],"feature_segments":[],"sorted_idx":[]},"gbtree_model_param":{"num_parallel_tree":"1","num_trees":"43"},"iteration_indptr":[0,1,2,3,4,5,6,7,8,9,10,11,12,13,14,15,16,17,18,19,20,21,22,23,24,25,26,27,28,29,30,31,32,33,34,35,36,37,38,39,40,41,42,43],"tree_info":[0,0,0,0,0,0,0,0,0,0,0,0,0,0,0,0,0,0,0,0,0,0,0,0,0,0,0,0,0,0,0,0,0,0,0,0,0,0,0,0,0,0,0],"trees":[{"base_weights":[1.6505701E-2,1.6169666E-1,-1.3471006E-1,-1.3397495E-1,3.0301377E-1,8.066241E-2,2.1355612E-2],"categories":[],"categories_nodes":[],"categories_segments":[],"categories_sizes":[],"default_left":[0,0,0,0,0,0,0],"id":0,"left_children":[1,3,-1,-1,5,-1,-1],"loss_changes":[8.937748E1,8.695339E1,0E0,0E0,1.6660122E1,0E0,0E0],"parents":[2147483647,0,0,1,1,4,4],"right_children":[2,4,-1,-1,6,-1,-1],"split_conditions":[1.3736283E-6,0E0,-1.3471006E-1,-1.3397495E-1,7.26627E4,8.066241E-2,2.1355612E-2],"split_indices":[147,147,0,0,146,0,0],"split_type":[0,0,0,0,0,0,0],"sum_hessian":[4.493393E2,4.0689615E2,4.2443134E1,3.427333E1,3.7262283E2,5.499674E1,3.176261E2],"tree_param":{"num_deleted":"0","num_feature":"154","num_nodes":"7","size_leaf_vector":"1"}},{"base_weights":[7.359598E-3,1.2583858E-1,-1.2955408E-1,-1.2907223E-1,2.4774225E-1,1.8614112E-1,1.9299176E-2],"categories":[],"categories_nodes":[],"categories_segments":[],"categories_sizes":[],"default_left":[0,0,0,0,0,0,0],"id":1,"left_children":[1,3,-1,-1,5,-1,-1],"loss_changes":[6.933326E1,7.140552E1,0E0,0E0,3.3202248E1,0E0,0E0],"parents":[2147483647,0,0,1,1,4,4],"right_children":[2,4,-1,-1,6,-1,-1],"split_conditions":[1.3736283E-6,0E0,-1.2955408E-1,-1.2907223E-1,7.25939E4,1.8614112E-1,1.9299176E-2],"split_indices":[147,147,0,0,146,0,0],"split_type":[0,0,0,0,0,0,0],"sum_hessian":[4.4709152E2,4.1065234E2,3.6439175E1,3.177922E1,3.7887314E2,1.1350163E1,3.6752295E2],"tree_param":{"num_deleted":"0","num_feature":"154","num_nodes":"7","size_leaf_vector":"1"}},{"base_weights":[-2.5042668E-3,1.1010964E-1,-1.2557684E-1,-1.24791645E-1,2.1623498E-1,6.928097E-2,1.1828454E-2],"categories":[],"categories_nodes":[],"categories_segments":[],"categories_sizes":[],"default_left":[0,0,0,0,0,0,0],"id":2,"left_children":[1,3,-1,-1,5,-1,-1],"loss_changes":[6.296625E1,5.9269955E1,0E0,0E0,1.7682789E1,0E0,0E0],"parents":[2147483647,0,0,1,1,4,4],"right_children":[2,4,-1,-1,6,-1,-1],"split_conditions":[1.3736283E-6,0E0,-1.2557684E-1,-1.24791645E-1,7.26694E4,6.928097E-2,1.1828454E-2],"split_indices":[147,147,0,0,146,0,0],"split_type":[0,0,0,0,0,0,0],"sum_hessian":[4.441624E2,4.0837903E2,3.5783367E1,2.8820498E1,3.7955853E2,6.3675312E1,3.158832E2],"tree_param":{"num_deleted":"0","num_feature":"154","num_nodes":"7","size_leaf_vector":"1"}},{"base_weights":[1.5237758E-2,1.1539397E-1,-1.2197377E-1,-1.2172486E-1,2.2293311E-1,3.2298E-2,-7.610233E-3],"categories":[],"categories_nodes":[],"categories_segments":[],"categories_sizes":[],"default_left":[0,0,0,0,0,0,0],"id":3,"left_children":[1,3,-1,-1,5,-1,-1],"loss_changes":[5.629981E1,6.0588665E1,0E0,0E0,1.1701429E1,0E0,0E0],"parents":[2147483647,0,0,1,1,4,4],"right_children":[2,4,-1,-1,6,-1,-1],"split_conditions":[1.3736283E-6,0E0,-1.2197377E-1,-1.2172486E-1,1.617464E4,3.2298E-2,-7.610233E-3],"split_indices":[147,147,0,0,59,0,0],"split_type":[0,0,0,0,0,0,0],"sum_hessian":[4.5302908E2,4.198832E2,3.3145866E1,3.0582375E1,3.8930084E2,2.9164612E2,9.765472E1],"tree_param":{"num_deleted":"0","num_feature":"154","num_nodes":"7","size_leaf_vector":"1"}},{"base_weights":[2.385965E-3,1.15228884E-1,-2.7676785E-1,-6.26579E-1,1.8056163E-1,-6.772512E-1,-4.50377E-2,-1.0202532E-1,-2.971066E-2,7.09421E-2,1.0681271E-2,7.08936E-2,-7.71247E-2,4.541556E-2,-3.1445384E-2],"categories":[],"categories_nodes":[],"categories_segments":[],"categories_sizes":[],"default_left":[0,0,0,0,0,0,0,0,0,0,0,0,0,0,0],"id":4,"left_children":[1,3,5,7,9,11,13,-1,-1,-1,-1,-1,-1,-1,-1],"loss_changes":[1.4202556E1,1.5673218E1,1.2014751E1,3.0966473E0,1.1463241E1,6.7361374E0,1.1344508E1,0E0,0E0,0E0,0E0,0E0,0E0,0E0,0E0],"parents":[2147483647,0,0,1,1,2,2,3,3,4,4,5,5,6,6],"right_children":[2,4,6,8,10,12,14,-1,-1,-1,-1,-1,-1,-1,-1],"split_conditions":[7.28524E4,-9.5105654E-1,3.01076E3,-1.8369701E-16,7.340048E-1,3.972455E4,3.170553E-1,-1.0202532E-1,-2.971066E-2,7.09421E-2,1.0681271E-2,7.08936E-2,-7.71247E-2,4.541556E-2,-3.1445384E-2],"split_indices":[146,151,66,152,2,73,44,0,0,0,0,0,0,0,0],"split_type":[0,0,0,0,0,0,0,0,0,0,0,0,0,0,0],"sum_hessian":[4.488547E2,3.2006244E2,1.2879227E2,2.5211609E1,2.9485083E2,4.6502533E1,8.228974E1,1.05314045E1,1.4680205E1,3.5029823E1,2.59821E2,2.537591E0,4.3964943E1,2.8604181E1,5.368556E1],"tree_param":{"num_deleted":"0","num_feature":"154","num_nodes":"15","size_leaf_vector":"1"}},{"base_weights":[1.0671495E-2,1.0171552E-1,-1.18981935E-1,-1.1825623E-1,1.9184828E-1,2.2943389E-2,-5.3192325E-2],"categories":[],"categories_nodes":[],"categories_segments":[],"categories_sizes":[],"default_left":[0,0,0,0,0,0,0],"id":5,"left_children":[1,3,-1,-1,5,-1,-1],"loss_changes":[4.9583824E1,4.902608E1,0E0,0E0,1.0861545E1,0E0,0E0],"parents":[2147483647,0,0,1,1,4,4],"right_children":[2,4,-1,-1,6,-1,-1],"split_conditions":[1.3736283E-6,0E0,-1.18981935E-1,-1.1825623E-1,2.459676E4,2.2943389E-2,-5.3192325E-2],"split_indices":[147,147,0,0,66,0,0],"split_type":[0,0,0,0,0,0,0],"sum_hessian":[4.515519E2,4.2057144E2,3.0980448E1,2.6785906E1,3.9378555E2,3.74995E2,1.8790562E1],"tree_param":{"num_deleted":"0","num_feature":"154","num_nodes":"7","size_leaf_vector":"1"}},{"base_weights":[-6.9183214E-3,7.754819E-2,-1.16342686E-1,-1.15524165E-1,1.5751168E-1,-9.101161E-3,2.57145E-2],"categories":[],"categories_nodes":[],"categories_segments":[],"categories_sizes":[],"default_left":[0,0,0,0,0,0,0],"id":6,"left_children":[1,3,-1,-1,5,-1,-1],"loss_changes":[4.3839294E1,4.141796E1,0E0,0E0,9.772064E0,0E0,0E0],"parents":[2147483647,0,0,1,1,4,4],"right_children":[2,4,-1,-1,6,-1,-1],"split_conditions":[1.3736283E-6,0E0,-1.16342686E-1,-1.15524165E-1,3.979065E4,-9.101161E-3,2.57145E-2],"split_indices":[147,147,0,0,73,0,0],"split_type":[0,0,0,0,0,0,0],"sum_hessian":[4.46853E2,4.1730756E2,2.954544E1,2.4600275E1,3.9270728E2,1.12407295E2,2.803E2],"tree_param":{"num_deleted":"0","num_feature":"154","num_nodes":"7","size_leaf_vector":"1"}},{"base_weights":[-1.6910464E-2,5.6845207E-2,-1.13763414E-1,-1.1296847E-1,1.2641929E-1,-2.567496E-2,2.3121415E-2],"categories":[],"categories_nodes":[],"categories_segments":[],"categories_sizes":[],"default_left":[0,0,0,0,0,0,0],"id":7,"left_children":[1,3,-1,-1,5,-1,-1],"loss_changes":[3.71433E1,3.4965115E1,0E0,0E0,1.609528E1,0E0,0E0],"parents":[2147483647,0,0,1,1,4,4],"right_children":[2,4,-1,-1,6,-1,-1],"split_conditions":[1.3736283E-6,0E0,-1.13763414E-1,-1.1296847E-1,3.90141E3,-2.567496E-2,2.3121415E-2],"split_indices":[147,147,0,0,60,0,0],"split_type":[0,0,0,0,0,0,0],"sum_hessian":[4.475695E2,4.2082404E2,2.674547E1,2.2464968E1,3.9835907E2,8.523999E1,3.1311908E2],"tree_param":{"num_deleted":"0","num_feature":"154","num_nodes":"7","size_leaf_vector":"1"}},{"base_weights":[-3.724021E-2,2.8636301E-2,-1.11599445E-1,-1.107248E-1,9.065549E-2,5.2510083E-2,-7.345498E-4],"categories":[],"categories_nodes":[],"categories_segments":[],"categories_sizes":[],"default_left":[0,0,0,0,0,0,0],"id":8,"left_children":[1,3,-1,-1,5,-1,-1],"loss_changes":[3.162903E1,2.9688696E1,0E0,0E0,1.699978E1,0E0,0E0],"parents":[2147483647,0,0,1,1,4,4],"right_children":[2,4,-1,-1,6,-1,-1],"split_conditions":[1.3736283E-6,0E0,-1.11599445E-1,-1.107248E-1,7.26694E4,5.2510083E-2,-7.345498E-4],"split_indices":[147,147,0,0,146,0,0],"split_type":[0,0,0,0,0,0,0],"sum_hessian":[4.4362485E2,4.190105E2,2.4614347E1,2.0820929E1,3.9818954E2,7.2487816E1,3.2570175E2],"tree_param":{"num_deleted":"0","num_feature":"154","num_nodes":"7","size_leaf_vector":"1"}},{"base_weights":[-4.316494E-3,5.612395E-2,-1.0948696E-1,-1.08935535E-1,1.1698517E-1,7.92816E-2,7.4836276E-3],"categories":[],"categories_nodes":[],"categories_segments":[],"categories_sizes":[],"default_left":[0,0,0,0,0,0,0],"id":9,"left_children":[1,3,-1,-1,5,-1,-1],"loss_changes":[2.9034355E1,2.9228598E1,0E0,0E0,1.125717E1,0E0,0E0],"parents":[2147483647,0,0,1,1,4,4],"right_children":[2,4,-1,-1,6,-1,-1],"split_conditions":[1.3736283E-6,0E0,-1.0948696E-1,-1.08935535E-1,7.26111E4,7.92816E-2,7.4836276E-3],"split_indices":[147,147,0,0,146,0,0],"split_type":[0,0,0,0,0,0,0],"sum_hessian":[4.3855948E2,4.1642877E2,2.2130705E1,2.0156721E1,3.9627203E2,2.2217564E1,3.7405447E2],"tree_param":{"num_deleted":"0","num_feature":"154","num_nodes":"7","size_leaf_vector":"1"}},{"base_weights":[8.775933E-4,-1.9987783E-1,1.01601176E-1,7.2799325E-1,-3.024998E-1,9.082583E-1,6.2249336E-2,9.4399005E-2,1.7936679E-2,-2.237285E-2,-1.2841366E-1,1.2809102E-1,2.6397798E-2,1.2833863E-1,3.6644917E-3],"categories":[],"categories_nodes":[],"categories_segments":[],"categories_sizes":[],"default_left":[0,0,0,0,0,0,0,0,0,0,0,0,0,0,0],"id":10,"left_children":[1,3,5,7,9,11,13,-1,-1,-1,-1,-1,-1,-1,-1],"loss_changes":[8.84643E0,1.4138193E1,9.190981E0,1.5903802E0,9.94409E0,2.8976173E0,8.6714325E0,0E0,0E0,0E0,0E0,0E0,0E0,0E0,0E0],"parents":[2147483647,0,0,1,1,2,2,3,3,4,4,5,5,6,6],"right_children":[2,4,6,8,10,12,14,-1,-1,-1,-1,-1,-1,-1,-1],"split_conditions":[3.16922E3,7.25939E4,-1.1230648E-1,3.0996904E-1,3.3709895E-2,5.03084E4,7.3229986E-1,9.4399005E-2,1.7936679E-2,-2.237285E-2,-1.2841366E-1,1.2809102E-1,2.6397798E-2,1.2833863E-1,3.6644917E-3],"split_indices":[66,146,37,44,51,74,2,0,0,0,0,0,0,0,0],"split_type":[0,0,0,0,0,0,0,0,0,0,0,0,0,0,0],"sum_hessian":[4.3548718E2,1.4516658E2,2.9032062E2,1.3849592E1,1.3131699E2,1.2477106E1,2.778435E2,9.42018E0,4.429412E0,1.2269894E2,8.618045E0,7.278877E0,5.1982293E0,4.6972365E0,2.7314627E2],"tree_param":{"num_deleted":"0","num_feature":"154","num_nodes":"15","size_leaf_vector":"1"}},{"base_weights":[3.448453E-2,1.5573516E-2,9.4996226E-1,-1.8848492E-1,9.902015E-2,1.3973609E-1,7.428911E-2,1.57247E-2,-7.351941E-2,-5.7921894E-3,3.7520427E-2,-7.9828545E-2,7.635387E-2],"categories":[],"categories_nodes":[],"categories_segments":[],"categories_sizes":[],"default_left":[0,0,0,0,0,0,0,0,0,0,0,0,0],"id":11,"left_children":[1,3,5,7,9,-1,11,-1,-1,-1,-1,-1,-1],"loss_changes":[7.5784388E0,7.353223E0,3.3673282E0,2.3811037E1,1.3301426E1,0E0,3.04659E0,0E0,0E0,0E0,0E0,0E0,0E0],"parents":[2147483647,0,0,1,1,2,2,3,3,4,4,6,6],"right_children":[2,4,6,8,10,-1,12,-1,-1,-1,-1,-1,-1],"split_conditions":[1.0016293E-2,-2.918885E-1,1.9444948E1,7.26694E4,7.18955E4,1.3973609E-1,-4.007013E-2,1.57247E-2,-7.351941E-2,-5.7921894E-3,3.7520427E-2,-7.9828545E-2,7.635387E-2],"split_indices":[37,16,153,146,52,0,51,0,0,0,0,0,0],"split_type":[0,0,0,0,0,0,0,0,0,0,0,0,0],"sum_hessian":[4.3759546E2,4.2973544E2,7.860029E0,1.24362816E2,3.0537262E2,4.807849E0,3.0521798E0,7.662103E1,4.7741787E1,1.9522563E2,1.1014699E2,1.2771462E0,1.7750337E0],"tree_param":{"num_deleted":"0","num_feature":"154","num_nodes":"13","size_leaf_vector":"1"}},{"base_weights":[-2.5707127E-3,5.191419E-2,-1.0781115E-1,-1.0684941E-1,1.0466208E-1,1.3810137E-2,-5.896054E-2],"categories":[],"categories_nodes":[],"categories_segments":[],"categories_sizes":[],"default_left":[0,0,0,0,0,0,0],"id":12,"left_children":[1,3,-1,-1,5,-1,-1],"loss_changes":[2.5813164E1,2.489203E1,0E0,0E0,9.399244E0,0E0,0E0],"parents":[2147483647,0,0,1,1,4,4],"right_children":[2,4,-1,-1,6,-1,-1],"split_conditions":[1.3736283E-6,0E0,-1.0781115E-1,-1.0684941E-1,8.175078E-1,1.3810137E-2,-5.896054E-2],"split_indices":[147,147,0,0,65,0,0],"split_type":[0,0,0,0,0,0,0],"sum_hessian":[4.3853705E2,4.1829855E2,2.0238495E1,1.7941874E1,4.0035666E2,3.827239E2,1.7632755E1],"tree_param":{"num_deleted":"0","num_feature":"154","num_nodes":"7","size_leaf_vector":"1"}},{"base_weights":[9.653615E-3,6.2163077E-2,-1.0635101E-1,-1.0519387E-1,1.1070241E-1,4.683439E-2,3.8034332E-3],"categories":[],"categories_nodes":[],"categories_segments":[],"categories_sizes":[],"default_left":[0,0,0,0,0,0,0],"id":13,"left_children":[1,3,-1,-1,5,-1,-1],"loss_changes":[2.4815739E1,2.2810724E1,0E0,0E0,1.0456955E1,0E0,0E0],"parents":[2147483647,0,0,1,1,4,4],"right_children":[2,4,-1,-1,6,-1,-1],"split_conditions":[1.3736283E-6,0E0,-1.0635101E-1,-1.0519387E-1,7.26627E4,4.683439E-2,3.8034332E-3],"split_indices":[147,147,0,0,146,0,0],"split_type":[0,0,0,0,0,0,0],"sum_hessian":[4.3820282E2,4.1866003E2,1.954279E1,1.6615686E1,4.0204434E2,6.69753E1,3.3506903E2],"tree_param":{"num_deleted":"0","num_feature":"154","num_nodes":"7","size_leaf_vector":"1"}},{"base_weights":[-3.1526335E-2,1.1519906E-2,-1.04411975E-1,-1.03678025E-1,5.3794518E-2,-1.76085E-2,1.8331734E-2],"categories":[],"categories_nodes":[],"categories_segments":[],"categories_sizes":[],"default_left":[0,0,0,0,0,0,0],"id":14,"left_children":[1,3,-1,-1,5,-1,-1],"loss_changes":[1.9139595E1,1.8753693E1,0E0,0E0,1.2136077E1,0E0,0E0],"parents":[2147483647,0,0,1,1,4,4],"right_children":[2,4,-1,-1,6,-1,-1],"split_conditions":[1.3736283E-6,0E0,-1.04411975E-1,-1.03678025E-1,-1.8840288E-1,-1.76085E-2,1.8331734E-2],"split_indices":[147,147,0,0,65,0,0],"split_type":[0,0,0,0,0,0,0],"sum_hessian":[4.3782294E2,4.2091797E2,1.6904972E1,1.540439E1,4.0551358E2,1.4601102E2,2.5950256E2],"tree_param":{"num_deleted":"0","num_feature":"154","num_nodes":"7","size_leaf_vector":"1"}},{"base_weights":[-1.31805595E-2,2.8289644E-2,-1.0315162E-1,-1.01837926E-1,6.5684795E-2,4.999468E-3,1.10775225E-1],"categories":[],"categories_nodes":[],"categories_segments":[],"categories_sizes":[],"default_left":[0,0,0,0,0,0,0],"id":15,"left_children":[1,3,-1,-1,5,-1,-1],"loss_changes":[1.850685E1,1.6560417E1,0E0,0E0,6.612176E0,0E0,0E0],"parents":[2147483647,0,0,1,1,4,4],"right_children":[2,4,-1,-1,6,-1,-1],"split_conditions":[1.3736283E-6,0E0,-1.0315162E-1,-1.01837926E-1,3.85208E-1,4.999468E-3,1.10775225E-1],"split_indices":[147,147,0,0,141,0,0],"split_type":[0,0,0,0,0,0,0],"sum_hessian":[4.3654227E2,4.2039456E2,1.6147722E1,1.3596737E1,4.0679782E2,4.0179605E2,5.001753E0],"tree_param":{"num_deleted":"0","num_feature":"154","num_nodes":"7","size_leaf_vector":"1"}},{"base_weights":[-6.039124E-2,-2.258851E-2,-1.0193682E-1,-1.004922E-1,1.0754238E-2,3.41486E-2,-6.387561E-3],"categories":[],"categories_nodes":[],"categories_segments":[],"categories_sizes":[],"default_left":[0,0,0,0,0,0,0],"id":16,"left_children":[1,3,-1,-1,5,-1,-1],"loss_changes":[1.5504844E1,1.3541698E1,0E0,0E0,9.908079E0,0E0,0E0],"parents":[2147483647,0,0,1,1,4,4],"right_children":[2,4,-1,-1,6,-1,-1],"split_conditions":[1.3736283E-6,0E0,-1.0193682E-1,-1.004922E-1,7.26694E4,3.41486E-2,-6.387561E-3],"split_indices":[147,147,0,0,146,0,0],"split_type":[0,0,0,0,0,0,0],"sum_hessian":[4.273321E2,4.1211032E2,1.5221772E1,1.2572226E1,3.995381E2,7.2899376E1,3.266387E2],"tree_param":{"num_deleted":"0","num_feature":"154","num_nodes":"7","size_leaf_vector":"1"}},{"base_weights":[3.5294753E-2,7.0637695E-2,-1.001923E-1,-9.886596E-2,1.0261811E-1,-1.3060813E-2,1.9800268E-2],"categories":[],"categories_nodes":[],"categories_segments":[],"categories_sizes":[],"default_left":[0,0,0,0,0,0,0],"id":17,"left_children":[1,3,-1,-1,5,-1,-1],"loss_changes":[1.5800488E1,1.4190288E1,0E0,0E0,9.026733E0,0E0,0E0],"parents":[2147483647,0,0,1,1,4,4],"right_children":[2,4,-1,-1,6,-1,-1],"split_conditions":[1.3736283E-6,0E0,-1.001923E-1,-9.886596E-2,-2.918885E-1,-1.3060813E-2,1.9800268E-2],"split_indices":[147,147,0,0,16,0,0],"split_type":[0,0,0,0,0,0,0],"sum_hessian":[4.280899E2,4.148847E2,1.3205199E1,1.1281737E1,4.0360297E2,1.1704506E2,2.8655792E2],"tree_param":{"num_deleted":"0","num_feature":"154","num_nodes":"7","size_leaf_vector":"1"}},{"base_weights":[-7.6012337E-4,3.0642806E-2,-9.9011116E-2,-9.79813E-2,6.0030937E-2,9.948217E-2,3.3923504E-3],"categories":[],"categories_nodes":[],"categories_segments":[],"categories_sizes":[],"default_left":[0,0,0,0,0,0,0],"id":18,"left_children":[1,3,-1,-1,5,-1,-1],"loss_changes":[1.3475356E1,1.2543072E1,0E0,0E0,9.959383E0,0E0,0E0],"parents":[2147483647,0,0,1,1,4,4],"right_children":[2,4,-1,-1,6,-1,-1],"split_conditions":[1.3736283E-6,0E0,-9.9011116E-2,-9.79813E-2,7.25858E4,9.948217E-2,3.3923504E-3],"split_indices":[147,147,0,0,146,0,0],"split_type":[0,0,0,0,0,0,0],"sum_hessian":[4.3175366E2,4.1941022E2,1.2343445E1,1.093939E1,4.0847083E2,1.0089946E1,3.9838086E2],"tree_param":{"num_deleted":"0","num_feature":"154","num_nodes":"7","size_leaf_vector":"1"}},{"base_weights":[4.5832642E-3,3.3109926E-2,-9.751911E-2,-9.6629515E-2,6.0288932E-2,2.5386704E-2,-6.7518377E-3],"categories":[],"categories_nodes":[],"categories_segments":[],"categories_sizes":[],"default_left":[0,0,0,0,0,0,0],"id":19,"left_children":[1,3,-1,-1,5,-1,-1],"loss_changes":[1.1908386E1,1.1299746E1,0E0,0E0,1.000842E1,0E0,0E0],"parents":[2147483647,0,0,1,1,4,4],"right_children":[2,4,-1,-1,6,-1,-1],"split_conditions":[1.3736283E-6,0E0,-9.751911E-2,-9.6629515E-2,9.178603E-5,2.5386704E-2,-6.7518377E-3],"split_indices":[147,147,0,0,148,0,0],"split_type":[0,0,0,0,0,0,0],"sum_hessian":[4.2390982E2,4.128555E2,1.1054306E1,1.001563E1,4.0283987E2,1.5980756E2,2.430323E2],"tree_param":{"num_deleted":"0","num_feature":"154","num_nodes":"7","size_leaf_vector":"1"}},{"base_weights":[-1.3543537E-2,1.2312082E-2,-9.644502E-2,-9.546618E-2,3.673597E-2,-1.2984082E-2,1.3619666E-2],"categories":[],"categories_nodes":[],"categories_segments":[],"categories_sizes":[],"default_left":[0,0,0,0,0,0,0],"id":20,"left_children":[1,3,-1,-1,5,-1,-1],"loss_changes":[1.0526577E1,9.891316E0,0E0,0E0,6.7775927E0,0E0,0E0],"parents":[2147483647,0,0,1,1,4,4],"right_children":[2,4,-1,-1,6,-1,-1],"split_conditions":[1.3736283E-6,-1.3690716E-6,-9.644502E-2,-9.546618E-2,-1.5775317E-1,-1.2984082E-2,1.3619666E-2],"split_indices":[147,147,0,0,65,0,0],"split_type":[0,0,0,0,0,0,0],"sum_hessian":[4.2666547E2,4.1633224E2,1.0333226E1,9.318375E0,4.070139E2,1.5205188E2,2.54962E2],"tree_param":{"num_deleted":"0","num_feature":"154","num_nodes":"7","size_leaf_vector":"1"}},{"base_weights":[-1.8539099E-2,5.579746E-3,-9.535619E-2,-9.359243E-2,2.6562838E-2,-1.5772609E-2,1.1927746E-2],"categories":[],"categories_nodes":[],"categories_segments":[],"categories_sizes":[],"default_left":[0,0,0,0,0,0,0],"id":21,"left_children":[1,3,-1,-1,5,-1,-1],"loss_changes":[9.56675E0,8.209859E0,0E0,0E0,6.9601393E0,0E0,0E0],"parents":[2147483647,0,0,1,1,4,4],"right_children":[2,4,-1,-1,6,-1,-1],"split_conditions":[1.3736283E-6,0E0,-9.535619E-2,-9.359243E-2,3.16922E3,-1.5772609E-2,1.1927746E-2],"split_indices":[147,147,0,0,66,0,0],"split_type":[0,0,0,0,0,0,0],"sum_hessian":[4.2297873E2,4.133114E2,9.667306E0,8.059963E0,4.0525146E2,1.3540521E2,2.6984622E2],"tree_param":{"num_deleted":"0","num_feature":"154","num_nodes":"7","size_leaf_vector":"1"}},{"base_weights":[1.4627238E-2,3.6632642E-2,-9.378993E-2,1.3628079E-1,-1.8188289E-1,9.75366E-3,1.3661967E-1,4.2772684E-2,-3.2956492E-2],"categories":[],"categories_nodes":[],"categories_segments":[],"categories_sizes":[],"default_left":[0,0,0,0,0,0,0,0,0],"id":22,"left_children":[1,3,-1,5,7,-1,-1,-1,-1],"loss_changes":[8.864124E0,9.011261E0,0E0,1.3400757E1,1.1816389E1,0E0,0E0,0E0,0E0],"parents":[2147483647,0,0,1,1,3,3,4,4],"right_children":[2,4,-1,6,8,-1,-1,-1,-1],"split_conditions":[1.3736283E-6,7.28443E4,-9.378993E-2,7.28394E4,-8.09017E-1,9.75366E-3,1.3661967E-1,4.2772684E-2,-3.2956492E-2],"split_indices":[147,146,0,146,151,0,0,0,0],"split_type":[0,0,0,0,0,0,0,0,0],"sum_hessian":[4.2025284E2,4.1170316E2,8.549683E0,2.8301712E2,1.2868604E2,2.7542026E2,7.5968475E0,2.4725698E1,1.03960335E2],"tree_param":{"num_deleted":"0","num_feature":"154","num_nodes":"9","size_leaf_vector":"1"}},{"base_weights":[1.7598392E-2,-1.2941061E-3,1.082414E0,-8.993529E-1,1.3512261E-2,1.8016894E-1,5.457496E-2,-1.2313604E-1,-1.5633563E-2,3.516819E-2,-4.291177E-3,9.014375E-2,-8.827921E-2],"categories":[],"categories_nodes":[],"categories_segments":[],"categories_sizes":[],"default_left":[0,0,0,0,0,0,0,0,0,0,0,0,0],"id":23,"left_children":[1,3,5,7,9,-1,11,-1,-1,-1,-1,-1,-1],"loss_changes":[8.666346E0,5.652957E0,5.4539146E0,1.5085154E0,7.9970345E0,0E0,4.0687943E0,0E0,0E0,0E0,0E0,0E0,0E0],"parents":[2147483647,0,0,1,1,2,2,3,3,4,4,6,6],"right_children":[2,4,6,8,10,-1,12,-1,-1,-1,-1,-1,-1],"split_conditions":[1E0,-5.525331E-1,1.0247532E-4,8.8629806E-1,7.26619E4,1.8016894E-1,2.7352706E-1,-1.2313604E-1,-1.5633563E-2,3.516819E-2,-4.291177E-3,9.014375E-2,-8.827921E-2],"split_indices":[151,72,148,30,146,0,44,0,0,0,0,0,0],"split_type":[0,0,0,0,0,0,0,0,0,0,0,0,0],"sum_hessian":[4.2972687E2,4.232167E2,6.5101404E0,5.895455E0,4.1732126E2,3.3870287E0,3.1231117E0,3.620458E0,2.2749968E0,5.8925655E1,3.583956E2,1.6609026E0,1.4622091E0],"tree_param":{"num_deleted":"0","num_feature":"154","num_nodes":"13","size_leaf_vector":"1"}},{"base_weights":[-5.7910297E-2,-1.4504935E-1,1.9717175E-1,4.6451643E-1,-2.027553E-1,7.709196E-1,5.172405E-2,1.4216237E-1,1.3496085E-2,-2.44227E-3,-3.8530868E-2,1.5948904E-1,1.5577145E-2,1.8338053E-2,-6.8723194E-2],"categories":[],"categories_nodes":[],"categories_segments":[],"categories_sizes":[],"default_left":[0,0,0,0,0,0,0,0,0,0,0,0,0,0,0],"id":24,"left_children":[1,3,5,7,9,11,13,-1,-1,-1,-1,-1,-1,-1,-1],"loss_changes":[9.415053E0,1.1186373E1,8.968601E0,8.505659E0,9.391346E0,1.0780704E1,8.608656E0,0E0,0E0,0E0,0E0,0E0,0E0,0E0,0E0],"parents":[2147483647,0,0,1,1,2,2,3,3,4,4,5,5,6,6],"right_children":[2,4,6,8,10,12,14,-1,-1,-1,-1,-1,-1,-1,-1],"split_conditions":[-1.0619227E-1,7.26111E4,7.28221E4,8.7271976E-5,5.495261E4,1.1630509E-4,5.1576066E-1,1.4216237E-1,1.3496085E-2,-2.44227E-3,-3.8530868E-2,1.5948904E-1,1.5577145E-2,1.8338053E-2,-6.8723194E-2],"split_indices":[100,146,146,148,74,148,93,0,0,0,0,0,0,0,0],"split_type":[0,0,0,0,0,0,0,0,0,0,0,0,0,0,0],"sum_hessian":[4.2128806E2,3.143379E2,1.0695019E2,2.6574413E1,2.8776346E2,2.0759563E1,8.619063E1,5.957798E0,2.0616615E1,1.4613803E2,1.4162543E2,8.192836E0,1.2566728E1,7.379478E1,1.2395846E1],"tree_param":{"num_deleted":"0","num_feature":"154","num_nodes":"15","size_leaf_vector":"1"}},{"base_weights":[1.0996896E-2,3.19865E-2,-9.31736E-2,-1.5831232E-1,1.3884944E-1,-9.542418E-3,-7.835688E-2,7.5425565E-2,8.646522E-3],"categories":[],"categories_nodes":[],"categories_segments":[],"categories_sizes":[],"default_left":[0,0,0,0,0,0,0,0,0],"id":25,"left_children":[1,3,-1,5,7,-1,-1,-1,-1],"loss_changes":[8.489834E0,8.546733E0,0E0,5.8712125E0,8.6061E0,0E0,0E0,0E0,0E0],"parents":[2147483647,0,0,1,1,3,3,4,4],"right_children":[2,4,-1,6,8,-1,-1,-1,-1],"split_conditions":[1.3736283E-6,3.19857E3,-9.31736E-2,7.588489E4,4.669268E4,-9.542418E-3,-7.835688E-2,7.5425565E-2,8.646522E-3],"split_indices":[147,66,0,52,74,0,0,0,0],"split_type":[0,0,0,0,0,0,0,0,0],"sum_hessian":[4.2654227E2,4.1819733E2,8.344941E0,1.5021565E2,2.6798166E2,1.3753503E2,1.2680624E1,1.9970549E1,2.4801112E2],"tree_param":{"num_deleted":"0","num_feature":"154","num_nodes":"9","size_leaf_vector":"1"}},{"base_weights":[-7.9376163E-4,-2.5048977E-1,7.067395E-2,2.942693E-2,-5.8117974E-1,8.2691526E-1,-2.2522623E-3,-1.4386797E-2,9.909366E-2,-1.12505294E-1,-1.3882826E-2,-5.7508744E-2,1.15668856E-1,-9.0943076E-2,2.8914006E-3],"categories":[],"categories_nodes":[],"categories_segments":[],"categories_sizes":[],"default_left":[0,0,0,0,0,0,0,0,0,0,0,0,0,0,0],"id":26,"left_children":[1,3,5,7,9,11,13,-1,-1,-1,-1,-1,-1,-1,-1],"loss_changes":[7.527072E0,8.705399E0,1.8087976E1,8.771163E0,1.0207235E1,1.4001879E1,8.511113E0,0E0,0E0,0E0,0E0,0E0,0E0,0E0,0E0],"parents":[2147483647,0,0,1,1,2,2,3,3,4,4,5,5,6,6],"right_children":[2,4,6,8,10,12,14,-1,-1,-1,-1,-1,-1,-1,-1],"split_conditions":[3.90141E3,7.28033E4,6.1877814E-5,8.8E-1,2.8327693E-16,7.230718E4,6.891739E-5,-1.4386797E-2,9.909366E-2,-1.12505294E-1,-1.3882826E-2,-5.7508744E-2,1.15668856E-1,-9.0943076E-2,2.8914006E-3],"split_indices":[60,146,148,41,152,52,148,0,0,0,0,0,0,0,0],"split_type":[0,0,0,0,0,0,0,0,0,0,0,0,0,0,0],"sum_hessian":[4.1980606E2,9.2860916E1,3.2694516E2,5.078463E1,4.2076283E1,2.7845858E1,2.990993E2,4.374987E1,7.0347586E0,1.8180243E1,2.3896038E1,5.1608896E0,2.2684969E1,8.998339E0,2.9010095E2],"tree_param":{"num_deleted":"0","num_feature":"154","num_nodes":"15","size_leaf_vector":"1"}},{"base_weights":[-1.821885E-2,-9.295538E-2,1.0587933E-3,1.9949388E-2,-9.175263E-2,7.058485E-3,-3.2087825E-2],"categories":[],"categories_nodes":[],"categories_segments":[],"categories_sizes":[],"default_left":[0,0,0,0,0,0,0],"id":27,"left_children":[1,-1,3,5,-1,-1,-1],"loss_changes":[7.534798E0,0E0,7.3227744E0,7.1577816E0,0E0,0E0,0E0],"parents":[2147483647,0,0,2,2,3,3],"right_children":[2,-1,4,6,-1,-1,-1],"split_conditions":[0E0,-9.295538E-2,1.3736283E-6,4.189579E-2,-9.175263E-2,7.058485E-3,-3.2087825E-2],"split_indices":[147,0,147,51,0,0,0],"split_type":[0,0,0,0,0,0,0],"sum_hessian":[4.2782776E2,7.8843064E0,4.1994345E2,4.1243997E2,7.503497E0,3.597815E2,5.2658463E1],"tree_param":{"num_deleted":"0","num_feature":"154","num_nodes":"7","size_leaf_vector":"1"}},{"base_weights":[-7.306741E-3,2.6307853E-2,-6.050606E-1,-9.049836E-2,4.4119895E-2,3.8212577E-1,-8.2927483E-1,8.354356E-2,2.2722017E-3,1.4356224E-1,-8.574918E-2,-1.149812E-1,-5.0323706E-2],"categories":[],"categories_nodes":[],"categories_segments":[],"categories_sizes":[],"default_left":[0,0,0,0,0,0,0,0,0,0,0,0,0],"id":28,"left_children":[1,3,5,-1,7,9,11,-1,-1,-1,-1,-1,-1],"loss_changes":[8.470587E0,6.6640573E0,5.284651E0,0E0,6.6318717E0,7.54996E0,1.365758E0,0E0,0E0,0E0,0E0,0E0,0E0],"parents":[2147483647,0,0,1,1,2,2,4,4,5,5,6,6],"right_children":[2,4,6,-1,8,10,12,-1,-1,-1,-1,-1,-1],"split_conditions":[6.753473E-1,0E0,1.7356154E0,-9.049836E-2,7.25858E4,5.495261E4,4E-2,8.354356E-2,2.2722017E-3,1.4356224E-1,-8.574918E-2,-1.149812E-1,-5.0323706E-2],"split_indices":[58,147,140,0,146,74,48,0,0,0,0,0,0],"split_type":[0,0,0,0,0,0,0,0,0,0,0,0,0],"sum_hessian":[4.197716E2,3.983277E2,2.1443909E1,6.54076E0,3.9178696E2,3.8386297E0,1.7605278E1,9.313702E0,3.8247324E2,1.9896209E0,1.8490088E0,7.6034665E0,1.0001812E1],"tree_param":{"num_deleted":"0","num_feature":"154","num_nodes":"13","size_leaf_vector":"1"}},{"base_weights":[4.931554E-3,-8.521568E-1,2.348275E-2,2.8336992E-2,-1.2410571E-1,-8.976007E-2,3.980701E-2,5.6478665E-3,-8.9420535E-2],"categories":[],"categories_nodes":[],"categories_segments":[],"categories_sizes":[],"default_left":[0,0,0,0,0,0,0,0,0],"id":29,"left_children":[1,3,5,-1,-1,-1,7,-1,-1],"loss_changes":[6.8065753E0,4.3568435E0,6.3321795E0,0E0,0E0,0E0,6.4725647E0,0E0,0E0],"parents":[2147483647,0,0,1,1,2,2,6,6],"right_children":[2,4,6,-1,-1,-1,8,-1,-1],"split_conditions":[2.87979E3,1.7364902E0,0E0,2.8336992E-2,-1.2410571E-1,-8.976007E-2,1.3736283E-6,5.6478665E-3,-8.9420535E-2],"split_indices":[60,140,147,0,0,0,147,0,0],"split_type":[0,0,0,0,0,0,0,0,0],"sum_hessian":[4.2582758E2,8.069535E0,4.1775806E2,2.1278644E0,5.941671E0,6.334826E0,4.1142322E2,4.0513135E2,6.2918615E0],"tree_param":{"num_deleted":"0","num_feature":"154","num_nodes":"9","size_leaf_vector":"1"}},{"base_weights":[-1.6877895E-2,-1.1003079E-3,-8.948741E-2,-1.122344E-1,1.18557505E-1,9.856991E-4,-5.3450286E-2,2.6047258E-2,-1.8710503E-2],"categories":[],"categories_nodes":[],"categories_segments":[],"categories_sizes":[],"default_left":[0,0,0,0,0,0,0,0,0],"id":30,"left_children":[1,3,-1,5,7,-1,-1,-1,-1],"loss_changes":[5.8530917E0,5.5471206E0,0E0,1.1154972E1,8.762111E0,0E0,0E0,0E0,0E0],"parents":[2147483647,0,0,1,1,3,3,4,4],"right_children":[2,4,-1,6,8,-1,-1,-1,-1],"split_conditions":[1.3736283E-6,7.18955E4,-8.948741E-2,7.068468E4,1.7377836E0,9.856991E-4,-5.3450286E-2,2.6047258E-2,-1.8710503E-2],"split_indices":[147,52,0,52,140,0,0,0,0],"split_type":[0,0,0,0,0,0,0,0,0],"sum_hessian":[4.215957E2,4.1513696E2,6.458756E0,2.1526666E2,1.998703E2,1.6774333E2,4.752333E1,1.3659766E2,6.3272636E1],"tree_param":{"num_deleted":"0","num_feature":"154","num_nodes":"9","size_leaf_vector":"1"}},{"base_weights":[-9.735925E-3,-1.8435241E-1,7.8996815E-2,-1.06040716E-1,-1.0859224E0,9.975297E-1,3.889186E-2,-1.6053127E-2,1.6873154E-1,-1.2022988E-1,-3.98074E-2,1.184135E-1,1.6738568E-2,-2.584057E-2,1.2610185E-2],"categories":[],"categories_nodes":[],"categories_segments":[],"categories_sizes":[],"default_left":[0,0,0,0,0,0,0,0,0,0,0,0,0,0,0],"id":31,"left_children":[1,3,5,7,9,11,13,-1,-1,-1,-1,-1,-1,-1,-1],"loss_changes":[6.581423E0,9.988487E0,1.0339235E1,1.3245807E1,4.2824173E-1,1.6212673E0,7.058307E0,0E0,0E0,0E0,0E0,0E0,0E0,0E0,0E0],"parents":[2147483647,0,0,1,1,2,2,3,3,4,4,5,5,6,6],"right_children":[2,4,6,8,10,12,14,-1,-1,-1,-1,-1,-1,-1,-1],"split_conditions":[3.16922E3,2.1115694E-2,4.5E-3,5.264608E4,3.09017E-1,-3.5453656E-1,-8.09017E-1,-1.6053127E-2,1.6873154E-1,-1.2022988E-1,-3.98074E-2,1.184135E-1,1.6738568E-2,-2.584057E-2,1.2610185E-2],"split_indices":[66,51,126,101,151,86,151,0,0,0,0,0,0,0,0],"split_type":[0,0,0,0,0,0,0,0,0,0,0,0,0,0,0],"sum_hessian":[4.22827E2,1.42104E2,2.80723E2,1.317754E2,1.0328589E1,1.0745412E1,2.699776E2,1.2877316E2,3.0022457E0,8.194292E0,2.134298E0,8.425133E0,2.3202786E0,6.078827E1,2.0918933E2],"tree_param":{"num_deleted":"0","num_feature":"154","num_nodes":"15","size_leaf_vector":"1"}},{"base_weights":[-2.1214627E-2,2.2292178E-2,-3.337837E-1,3.8063563E-2,-8.710749E-2,4.3844152E-2,-6.9859123E-1,6.5407823E-3,-4.34397E-2,1.6979249E-1,-1.1305808E-2,7.66525E-2,-8.650194E-2],"categories":[],"categories_nodes":[],"categories_segments":[],"categories_sizes":[],"default_left":[0,0,0,0,0,0,0,0,0,0,0,0,0],"id":32,"left_children":[1,3,5,7,-1,9,11,-1,-1,-1,-1,-1,-1],"loss_changes":[5.7144747E0,5.2368793E0,7.103238E0,4.7294226E0,0E0,6.983174E0,7.0447674E0,0E0,0E0,0E0,0E0,0E0,0E0],"parents":[2147483647,0,0,1,1,2,2,3,3,5,5,6,6],"right_children":[2,4,6,8,-1,10,12,-1,-1,-1,-1,-1,-1],"split_conditions":[4.189579E-2,1.3736283E-6,1.04528464E-1,7.30422E4,-8.710749E-2,7.010499E-5,2.3951462E-1,6.5407823E-3,-4.34397E-2,1.6979249E-1,-1.1305808E-2,7.66525E-2,-8.650194E-2],"split_indices":[51,147,152,146,0,148,44,0,0,0,0,0,0],"split_type":[0,0,0,0,0,0,0,0,0,0,0,0,0],"sum_hessian":[4.1866937E2,3.6832986E2,5.0339527E1,3.62881E2,5.4488606E0,2.5167446E1,2.517208E1,3.4384225E2,1.9038752E1,1.3295575E0,2.3837889E1,2.1999066E0,2.2972174E1],"tree_param":{"num_deleted":"0","num_feature":"154","num_nodes":"13","size_leaf_vector":"1"}},{"base_weights":[-6.232485E-3,-8.962549E-2,9.645992E-3,-6.138709E-3,8.742902E-1,2.419735E-3,-4.6749916E-2,1.1315387E-1,-3.321612E-2],"categories":[],"categories_nodes":[],"categories_segments":[],"categories_sizes":[],"default_left":[0,0,0,0,0,0,0,0,0],"id":33,"left_children":[1,-1,3,5,7,-1,-1,-1,-1],"loss_changes":[5.98821E0,0E0,5.6924057E0,5.7525787E0,2.69657E0,0E0,0E0,0E0,0E0],"parents":[2147483647,0,0,2,2,3,3,4,4],"right_children":[2,-1,4,6,8,-1,-1,-1,-1],"split_conditions":[0E0,-8.962549E-2,1E0,9.781476E-1,-3.886685E-2,2.419735E-3,-4.6749916E-2,1.1315387E-1,-3.321612E-2],"split_indices":[147,0,151,151,37,0,0,0,0],"split_type":[0,0,0,0,0,0,0,0,0],"sum_hessian":[4.221163E2,6.4269586E0,4.1568933E2,4.092118E2,6.4775543E0,3.8485385E2,2.4357933E1,5.3902907E0,1.0872636E0],"tree_param":{"num_deleted":"0","num_feature":"154","num_nodes":"9","size_leaf_vector":"1"}},{"base_weights":[1.20421555E-2,4.2631503E-2,-3.978077E-1,1.8699318E-2,1.1241915E0,-1.22107044E-1,2.5109623E-2,-1.3649794E-2,1.0838921E-2,9.656525E-3,1.429108E-1,-7.5338945E-2,3.724487E-2],"categories":[],"categories_nodes":[],"categories_segments":[],"categories_sizes":[],"default_left":[0,0,0,0,0,0,0,0,0,0,0,0,0],"id":34,"left_children":[1,3,5,7,9,-1,11,-1,-1,-1,-1,-1,-1],"loss_changes":[5.2085023E0,9.976449E0,1.0077721E1,5.288875E0,2.4766855E0,0E0,5.700384E0,0E0,0E0,0E0,0E0,0E0,0E0],"parents":[2147483647,0,0,1,1,2,2,3,3,4,4,6,6],"right_children":[2,4,6,8,10,-1,12,-1,-1,-1,-1,-1,-1],"split_conditions":[7.30422E4,7.30357E4,3.56918E3,0E0,-2.9116377E-1,-1.22107044E-1,-2.0929362E-1,-1.3649794E-2,1.0838921E-2,9.656525E-3,1.429108E-1,-7.5338945E-2,3.724487E-2],"split_indices":[146,146,66,68,16,0,72,0,0,0,0,0,0],"split_type":[0,0,0,0,0,0,0,0,0,0,0,0,0],"sum_hessian":[4.1309647E2,3.852399E2,2.7856588E1,3.7789532E2,7.344577E0,8.813236E0,1.9043352E1,1.3821297E2,2.3968234E2,1.9818977E0,5.3626795E0,5.514514E0,1.3528838E1],"tree_param":{"num_deleted":"0","num_feature":"154","num_nodes":"13","size_leaf_vector":"1"}},{"base_weights":[5.839281E-3,-1.1285719E-2,7.8155845E-1,-1.9215874E-1,5.6389667E-2,1.0779829E0,1.7691681E-1,1.36909E-1,-2.9832497E-2,-3.688477E-3,3.8041856E-2,1.4134157E-1,1.4456823E-2,-7.514415E-2,8.167841E-2],"categories":[],"categories_nodes":[],"categories_segments":[],"categories_sizes":[],"default_left":[0,0,0,0,0,0,0,0,0,0,0,0,0,0,0],"id":35,"left_children":[1,3,5,7,9,11,13,-1,-1,-1,-1,-1,-1,-1,-1],"loss_changes":[5.619642E0,5.081294E0,1.4469442E0,1.9140842E1,9.148102E0,1.6538877E0,3.109982E0,0E0,0E0,0E0,0E0,0E0,0E0,0E0,0E0],"parents":[2147483647,0,0,1,1,2,2,3,3,4,4,5,5,6,6],"right_children":[2,4,6,8,10,12,14,-1,-1,-1,-1,-1,-1,-1,-1],"split_conditions":[1.0016293E-2,-2.918885E-1,1.9444948E1,7.401105E-5,5.893007E4,1.3766167E-4,6.282893E4,1.36909E-1,-2.9832497E-2,-3.688477E-3,3.8041856E-2,1.4134157E-1,1.4456823E-2,-7.514415E-2,8.167841E-2],"split_indices":[37,16,153,148,74,148,52,0,0,0,0,0,0,0,0],"split_type":[0,0,0,0,0,0,0,0,0,0,0,0,0,0,0],"sum_hessian":[4.2136826E2,4.132311E2,8.137157E0,1.1201476E2,3.0121634E2,4.9349585E0,3.2021995E0,6.374696E0,1.0564007E2,2.3457744E2,6.663891E1,3.2520547E0,1.6829036E0,1.2354145E0,1.9667851E0],"tree_param":{"num_deleted":"0","num_feature":"154","num_nodes":"15","size_leaf_vector":"1"}},{"base_weights":[-3.3705976E-2,2.5737196E-1,-9.805899E-2,8.2916963E-1,-5.4610495E-2,-1.2841307E-1,-5.9297238E-2,1.7250212E-1,5.700582E-2,-2.08055E-2,1.2185124E-1,-6.0675096E-2,-1.8053738E-3],"categories":[],"categories_nodes":[],"categories_segments":[],"categories_sizes":[],"default_left":[0,0,0,0,0,0,0,0,0,0,0,0,0],"id":36,"left_children":[1,3,5,7,9,-1,11,-1,-1,-1,-1,-1,-1],"loss_changes":[7.818608E0,1.3532455E1,1.5621607E1,5.226206E0,9.992626E0,0E0,7.4782357E0,0E0,0E0,0E0,0E0,0E0,0E0],"parents":[2147483647,0,0,1,1,2,2,3,3,4,4,6,6],"right_children":[2,4,6,8,10,-1,12,-1,-1,-1,-1,-1,-1],"split_conditions":[7.26694E4,1.0303464E-4,-5.052817E-1,-3.0695102E-1,-2.9195097E-1,-1.2841307E-1,2.4E-2,1.7250212E-1,5.700582E-2,-2.08055E-2,1.2185124E-1,-6.0675096E-2,-1.8053738E-3],"split_indices":[146,148,58,16,16,0,56,0,0,0,0,0,0],"split_type":[0,0,0,0,0,0,0,0,0,0,0,0,0],"sum_hessian":[4.1505148E2,7.460463E1,3.4044684E2,2.575092E1,4.8853714E1,9.757203E0,3.3068964E2,4.5078917E0,2.1243027E1,4.43455E1,4.50821E0,2.2207155E1,3.0848248E2],"tree_param":{"num_deleted":"0","num_feature":"154","num_nodes":"13","size_leaf_vector":"1"}},{"base_weights":[6.420919E-3,3.646075E-2,-5.1781327E-1,9.021886E-3,6.58836E-1,-7.7685356E-1,1.05447315E-1,9.934139E-3,-1.964507E-2,1.23927735E-1,-6.2005665E-2,-9.5329426E-2,3.2386344E-2],"categories":[],"categories_nodes":[],"categories_segments":[],"categories_sizes":[],"default_left":[0,0,0,0,0,0,0,0,0,0,0,0,0],"id":37,"left_children":[1,3,5,7,9,11,-1,-1,-1,-1,-1,-1,-1],"loss_changes":[6.6207E0,6.781123E0,1.0099606E1,7.1025195E0,1.3215678E1,4.2199144E0,0E0,0E0,0E0,0E0,0E0,0E0,0E0],"parents":[2147483647,0,0,1,1,2,2,3,3,4,4,5,5],"right_children":[2,4,6,8,10,12,-1,-1,-1,-1,-1,-1,-1],"split_conditions":[9.945219E-1,9.781476E-1,3.0533004E-1,7.28443E4,7.446943E4,1.6582855E-4,1.05447315E-1,9.934139E-3,-1.964507E-2,1.23927735E-1,-6.2005665E-2,-9.5329426E-2,3.2386344E-2],"split_indices":[152,152,23,146,52,148,0,0,0,0,0,0,0],"split_type":[0,0,0,0,0,0,0,0,0,0,0,0,0],"sum_hessian":[4.1821884E2,3.964328E2,2.1786066E1,3.806648E2,1.5768E1,1.9138784E1,2.6472805E0,2.647884E2,1.1587641E2,1.0866899E1,4.901101E0,1.6610172E1,2.5286136E0],"tree_param":{"num_deleted":"0","num_feature":"154","num_nodes":"13","size_leaf_vector":"1"}},{"base_weights":[4.7626684E-4,2.5154757E-1,-5.5147886E-2,9.3723845E-1,-3.238126E-2,-1.2193624E-1,-2.2572177E-2,1.067251E-1,1.2480711E-2,-1.5676277E-2,1.0654839E-1,-2.8680826E-2,5.2550863E-3],"categories":[],"categories_nodes":[],"categories_segments":[],"categories_sizes":[],"default_left":[0,0,0,0,0,0,0,0,0,0,0,0,0],"id":38,"left_children":[1,3,5,7,9,-1,11,-1,-1,-1,-1,-1,-1],"loss_changes":[5.8345385E0,1.478191E1,1.29434185E1,2.2139091E0,7.616002E0,0E0,6.6395683E0,0E0,0E0,0E0,0E0,0E0,0E0],"parents":[2147483647,0,0,1,1,2,2,3,3,4,4,6,6],"right_children":[2,4,6,8,10,-1,12,-1,-1,-1,-1,-1,-1],"split_conditions":[7.26694E4,9.983923E-5,-5.052817E-1,7.26619E4,-2.9195097E-1,-1.2193624E-1,2.86842E3,1.067251E-1,1.2480711E-2,-1.5676277E-2,1.0654839E-1,-2.8680826E-2,5.2550863E-3],"split_indices":[146,148,58,146,16,0,66,0,0,0,0,0,0],"split_type":[0,0,0,0,0,0,0,0,0,0,0,0,0],"sum_hessian":[4.1578513E2,7.477049E1,3.4101462E2,2.1220886E1,5.3549606E1,8.290515E0,3.3272412E2,1.802303E1,3.1978571E0,4.887013E1,4.6794796E0,7.303049E1,2.5969363E2],"tree_param":{"num_deleted":"0","num_feature":"154","num_nodes":"13","size_leaf_vector":"1"}},{"base_weights":[1.0694957E-2,-8.675553E-2,2.4281524E-2,2.4953099E-1,-2.970154E-2,7.3556446E-2,-4.0958794E-3,2.9354317E-3,-6.872686E-2],"categories":[],"categories_nodes":[],"categories_segments":[],"categories_sizes":[],"default_left":[0,0,0,0,0,0,0,0,0],"id":39,"left_children":[1,-1,3,5,7,-1,-1,-1,-1],"loss_changes":[4.901139E0,0E0,4.916493E0,1.1064785E1,1.2701647E1,0E0,0E0,0E0,0E0],"parents":[2147483647,0,0,2,2,3,3,4,4],"right_children":[2,-1,4,6,8,-1,-1,-1,-1],"split_conditions":[0E0,-8.675553E-2,7.26694E4,1.0303464E-4,1.6306433E5,7.3556446E-2,-4.0958794E-3,2.9354317E-3,-6.872686E-2],"split_indices":[147,0,146,148,18,0,0,0,0],"split_type":[0,0,0,0,0,0,0,0,0],"sum_hessian":[4.0797647E2,5.257723E0,4.0271875E2,7.715592E1,3.255628E2,2.829012E1,4.8865807E1,2.996103E2,2.5952534E1],"tree_param":{"num_deleted":"0","num_feature":"154","num_nodes":"9","size_leaf_vector":"1"}},{"base_weights":[2.4672884E-2,1.1180589E0,1.2492144E-2,1.7246647E-1,-2.464566E-3,4.294373E-2,-3.8920084E-1,7.914605E-2,7.2503864E-4,-8.7954655E-2,2.816676E-2],"categories":[],"categories_nodes":[],"categories_segments":[],"categories_sizes":[],"default_left":[0,0,0,0,0,0,0,0,0,0,0],"id":40,"left_children":[1,3,5,-1,-1,7,9,-1,-1,-1,-1],"loss_changes":[5.4599776E0,3.1736083E0,5.001252E0,0E0,0E0,1.0138189E1,9.726286E0,0E0,0E0,0E0,0E0],"parents":[2147483647,0,0,1,1,2,2,5,5,6,6],"right_children":[2,4,6,-1,-1,8,10,-1,-1,-1,-1],"split_conditions":[-5.9777826E-1,3.800114E-1,7.30422E4,1.7246647E-1,-2.464566E-3,1.9446312E1,3.979048E4,7.914605E-2,7.2503864E-4,-8.7954655E-2,2.816676E-2],"split_indices":[51,141,146,0,0,153,73,0,0,0,0],"split_type":[0,0,0,0,0,0,0,0,0,0,0],"sum_hessian":[4.1001068E2,3.51707E0,4.0649362E2,1.9647813E0,1.5522889E0,3.7867972E2,2.78139E1,1.6271887E1,3.6240784E2,1.5889223E1,1.1924678E1],"tree_param":{"num_deleted":"0","num_feature":"154","num_nodes":"11","size_leaf_vector":"1"}},{"base_weights":[-1.09569235E-2,2.9873527E-3,-8.737263E-2,3.1881787E-2,-4.2701748E-1,1.164833E-2,-1.6123323E-2,5.318412E-4,-1.0705709E-1],"categories":[],"categories_nodes":[],"categories_segments":[],"categories_sizes":[],"default_left":[0,0,0,0,0,0,0,0,0],"id":41,"left_children":[1,3,-1,5,7,-1,-1,-1,-1],"loss_changes":[5.003681E0,5.108724E0,0E0,6.311909E0,7.2090626E0,0E0,0E0,0E0,0E0],"parents":[2147483647,0,0,1,1,3,3,4,4],"right_children":[2,4,-1,6,8,-1,-1,-1,-1],"split_conditions":[1.3736283E-6,2.950019E4,-8.737263E-2,7.28524E4,7.266E4,1.164833E-2,-1.6123323E-2,5.318412E-4,-1.0705709E-1],"split_indices":[147,60,0,146,146,0,0,0,0],"split_type":[0,0,0,0,0,0,0,0,0],"sum_hessian":[4.1469266E2,4.0907758E2,5.615068E0,3.841877E2,2.4889868E1,2.6742755E2,1.1676016E2,1.5481327E1,9.408542E0],"tree_param":{"num_deleted":"0","num_feature":"154","num_nodes":"9","size_leaf_vector":"1"}},{"base_weights":[8.103045E-3,9.4342634E-2,-1.2842818E-1,7.349741E-2,1.757228E-1,-9.3403465E-1,-5.171391E-2,1.6712094E-2,-1.9316016E-2,-1.2535553E-1,1.9386174E-2,3.3400163E-2,-1.8781442E-2],"categories":[],"categories_nodes":[],"categories_segments":[],"categories_sizes":[],"default_left":[0,0,0,0,0,0,0,0,0,0,0,0,0],"id":42,"left_children":[1,3,5,7,-1,9,11,-1,-1,-1,-1,-1,-1],"loss_changes":[4.9353743E0,8.773769E0,9.981587E0,6.391083E0,0E0,5.30717E0,7.8972435E0,0E0,0E0,0E0,0E0,0E0,0E0],"parents":[2147483647,0,0,1,1,2,2,3,3,5,5,6,6],"right_children":[2,4,6,8,-1,10,12,-1,-1,-1,-1,-1,-1],"split_conditions":[1.1630509E-4,1.1615226E-4,1.2083963E-4,7.28524E4,1.757228E-1,1.7380136E0,8.616823E4,1.6712094E-2,-1.9316016E-2,-1.2535553E-1,1.9386174E-2,3.3400163E-2,-1.8781442E-2],"split_indices":[148,148,148,146,0,140,39,0,0,0,0,0,0],"split_type":[0,0,0,0,0,0,0,0,0,0,0,0,0],"sum_hessian":[4.171325E2,2.5584052E2,1.6129199E2,2.5370438E2,2.1361327E0,1.3052031E1,1.4823996E2,1.8805241E2,6.565197E1,1.008395E1,2.9680808E0,3.8284813E1,1.0995514E2],"tree_param":{"num_deleted":"0","num_feature":"154","num_nodes":"13","size_leaf_vector":"1"}}]},"name":"gbtree"},"learner_model_param":{"base_score":"[2.7475247E-1]","boost_from_average":"1","num_class":"0","num_feature":"154","num_target":"1"},"objective":{"name":"binary:logistic","reg_loss_param":{"scale_pos_weight":"1"}}},"version":[3,2,0]}